digraph Tree {
node [shape=box, fontname="helvetica"] ;
edge [fontname="helvetica"] ;
0 [label="x[3] <= 0.8\ngini = 0.666\nsamples = 105\nvalue = [37, 34, 34]"] ;
1 [label="gini = 0.0\nsamples = 37\nvalue = [37, 0, 0]"] ;
0 -> 1 [labeldistance=2.5, labelangle=45, headlabel="True"] ;
2 [label="x[2] <= 4.75\ngini = 0.5\nsamples = 68\nvalue = [0, 34, 34]"] ;
0 -> 2 [labeldistance=2.5, labelangle=-45, headlabel="False"] ;
3 [label="x[3] <= 1.65\ngini = 0.057\nsamples = 34\nvalue = [0, 33, 1]"] ;
2 -> 3 ;
4 [label="gini = 0.0\nsamples = 33\nvalue = [0, 33, 0]"] ;
3 -> 4 ;
5 [label="gini = 0.0\nsamples = 1\nvalue = [0, 0, 1]"] ;
3 -> 5 ;
6 [label="x[3] <= 1.75\ngini = 0.057\nsamples = 34\nvalue = [0, 1, 33]"] ;
2 -> 6 ;
7 [label="gini = 0.375\nsamples = 4\nvalue = [0, 1, 3]"] ;
6 -> 7 ;
8 [label="gini = 0.0\nsamples = 30\nvalue = [0, 0, 30]"] ;
6 -> 8 ;
}